digraph Tree {
node [shape=box] ;
0 [label="Qp <= 42.0\ngini = 0.046\nsamples = 32612\nvalue = [772, 31840]"] ;
1 [label="Qp <= 40.343\ngini = 0.005\nsamples = 24042\nvalue = [59, 23983]"] ;
0 -> 1 [labeldistance=2.5, labelangle=45, headlabel="True"] ;
2 [label="Qp <= 9.187\ngini = 0.001\nsamples = 21995\nvalue = [6, 21989]"] ;
1 -> 2 ;
3 [label="gini = 0.076\nsamples = 101\nvalue = [4, 97]"] ;
2 -> 3 ;
4 [label="Qp <= 39.971\ngini = 0.0\nsamples = 21894\nvalue = [2, 21892]"] ;
2 -> 4 ;
5 [label="gini = 0.0\nsamples = 21429\nvalue = [0, 21429]"] ;
4 -> 5 ;
6 [label="P <= 0.285\ngini = 0.009\nsamples = 465\nvalue = [2, 463]"] ;
4 -> 6 ;
7 [label="gini = 0.039\nsamples = 100\nvalue = [2, 98]"] ;
6 -> 7 ;
8 [label="gini = 0.0\nsamples = 365\nvalue = [0, 365]"] ;
6 -> 8 ;
9 [label="C <= 3.035\ngini = 0.05\nsamples = 2047\nvalue = [53, 1994]"] ;
1 -> 9 ;
10 [label="Q <= 0.02\ngini = 0.011\nsamples = 1922\nvalue = [11, 1911]"] ;
9 -> 10 ;
11 [label="gini = 0.169\nsamples = 118\nvalue = [11, 107]"] ;
10 -> 11 ;
12 [label="gini = 0.0\nsamples = 1804\nvalue = [0, 1804]"] ;
10 -> 12 ;
13 [label="gini = 0.446\nsamples = 125\nvalue = [42, 83]"] ;
9 -> 13 ;
14 [label="C <= 3.005\ngini = 0.153\nsamples = 8570\nvalue = [713, 7857]"] ;
0 -> 14 [labeldistance=2.5, labelangle=-45, headlabel="False"] ;
15 [label="Q <= 0.248\ngini = 0.093\nsamples = 7963\nvalue = [388, 7575]"] ;
14 -> 15 ;
16 [label="C <= 2.543\ngini = 0.182\nsamples = 3685\nvalue = [372, 3313]"] ;
15 -> 16 ;
17 [label="Q <= 0.12\ngini = 0.084\nsamples = 2880\nvalue = [126, 2754]"] ;
16 -> 17 ;
18 [label="Qp <= 50.391\ngini = 0.053\nsamples = 2776\nvalue = [76, 2700]"] ;
17 -> 18 ;
19 [label="Qp <= 49.386\ngini = 0.004\nsamples = 2094\nvalue = [4, 2090]"] ;
18 -> 19 ;
20 [label="gini = 0.0\nsamples = 1922\nvalue = [0, 1922]"] ;
19 -> 20 ;
21 [label="gini = 0.045\nsamples = 172\nvalue = [4, 168]"] ;
19 -> 21 ;
22 [label="C <= 2.265\ngini = 0.189\nsamples = 682\nvalue = [72, 610]"] ;
18 -> 22 ;
23 [label="Qp <= 57.16\ngini = 0.03\nsamples = 534\nvalue = [8, 526]"] ;
22 -> 23 ;
24 [label="gini = 0.0\nsamples = 433\nvalue = [0, 433]"] ;
23 -> 24 ;
25 [label="gini = 0.146\nsamples = 101\nvalue = [8, 93]"] ;
23 -> 25 ;
26 [label="gini = 0.491\nsamples = 148\nvalue = [64, 84]"] ;
22 -> 26 ;
27 [label="gini = 0.499\nsamples = 104\nvalue = [50, 54]"] ;
17 -> 27 ;
28 [label="Qp <= 47.203\ngini = 0.424\nsamples = 805\nvalue = [246, 559]"] ;
16 -> 28 ;
29 [label="C <= 2.728\ngini = 0.302\nsamples = 670\nvalue = [124, 546]"] ;
28 -> 29 ;
30 [label="gini = 0.0\nsamples = 395\nvalue = [0, 395]"] ;
29 -> 30 ;
31 [label="Qp <= 44.198\ngini = 0.495\nsamples = 275\nvalue = [124, 151]"] ;
29 -> 31 ;
32 [label="gini = 0.398\nsamples = 175\nvalue = [48, 127]"] ;
31 -> 32 ;
33 [label="gini = 0.365\nsamples = 100\nvalue = [76, 24]"] ;
31 -> 33 ;
34 [label="gini = 0.174\nsamples = 135\nvalue = [122, 13]"] ;
28 -> 34 ;
35 [label="Qp <= 58.68\ngini = 0.007\nsamples = 4278\nvalue = [16, 4262]"] ;
15 -> 35 ;
36 [label="Qp <= 56.991\ngini = 0.0\nsamples = 4116\nvalue = [1, 4115]"] ;
35 -> 36 ;
37 [label="gini = 0.0\nsamples = 4016\nvalue = [0, 4016]"] ;
36 -> 37 ;
38 [label="gini = 0.02\nsamples = 100\nvalue = [1, 99]"] ;
36 -> 38 ;
39 [label="gini = 0.168\nsamples = 162\nvalue = [15, 147]"] ;
35 -> 39 ;
40 [label="Qp <= 48.651\ngini = 0.497\nsamples = 607\nvalue = [325, 282]"] ;
14 -> 40 ;
41 [label="C <= 3.044\ngini = 0.49\nsamples = 485\nvalue = [209, 276]"] ;
40 -> 41 ;
42 [label="Qp <= 45.374\ngini = 0.136\nsamples = 232\nvalue = [17, 215]"] ;
41 -> 42 ;
43 [label="gini = 0.0\nsamples = 132\nvalue = [0, 132]"] ;
42 -> 43 ;
44 [label="gini = 0.282\nsamples = 100\nvalue = [17, 83]"] ;
42 -> 44 ;
45 [label="Qp <= 43.503\ngini = 0.366\nsamples = 253\nvalue = [192, 61]"] ;
41 -> 45 ;
46 [label="gini = 0.5\nsamples = 107\nvalue = [55, 52]"] ;
45 -> 46 ;
47 [label="gini = 0.116\nsamples = 146\nvalue = [137, 9]"] ;
45 -> 47 ;
48 [label="gini = 0.094\nsamples = 122\nvalue = [116, 6]"] ;
40 -> 48 ;
}
