digraph Tree {
node [shape=box] ;
0 [label="demand <= 0.33\ngini = 0.875\nsamples = 20000\nvalue = [787, 1063, 1744, 1831, 1749, 2275, 1922, 2017, 1875\n4737]"] ;
1 [label="demand <= -0.47\ngini = 0.88\nsamples = 13413\nvalue = [787, 1063, 1744, 1831, 1749, 2275, 1922, 878, 553\n611]"] ;
0 -> 1 [labeldistance=2.5, labelangle=45, headlabel="True"] ;
2 [label="inventory <= 0.93\ngini = 0.8\nsamples = 5414\nvalue = [787, 1063, 1744, 815, 596, 77, 66, 50, 76, 140]"] ;
1 -> 2 ;
3 [label="demand <= -0.79\ngini = 0.771\nsamples = 2747\nvalue = [0, 115, 813, 814, 596, 77, 66, 50, 76, 140]"] ;
2 -> 3 ;
4 [label="inventory <= 0.55\ngini = 0.513\nsamples = 1109\nvalue = [0, 111, 760, 54, 20, 26, 30, 20, 40, 48]"] ;
3 -> 4 ;
5 [label="inventory <= -0.29\ngini = 0.844\nsamples = 210\nvalue = [0, 0, 2, 24, 20, 26, 30, 20, 40, 48]"] ;
4 -> 5 ;
6 [label="gini = 0.595\nsamples = 100\nvalue = [0, 0, 0, 0, 0, 0, 0, 12, 40, 48]"] ;
5 -> 6 ;
7 [label="gini = 0.783\nsamples = 110\nvalue = [0, 0, 2, 24, 20, 26, 30, 8, 0, 0]"] ;
5 -> 7 ;
8 [label="demand <= -0.97\ngini = 0.273\nsamples = 899\nvalue = [0, 111, 758, 30, 0, 0, 0, 0, 0, 0]"] ;
4 -> 8 ;
9 [label="gini = 0.5\nsamples = 171\nvalue = [0, 88, 83, 0, 0, 0, 0, 0, 0, 0]"] ;
8 -> 9 ;
10 [label="inventory <= 0.63\ngini = 0.138\nsamples = 728\nvalue = [0, 23, 675, 30, 0, 0, 0, 0, 0, 0]"] ;
8 -> 10 ;
11 [label="gini = 0.268\nsamples = 188\nvalue = [0, 0, 158, 30, 0, 0, 0, 0, 0, 0]"] ;
10 -> 11 ;
12 [label="inventory <= 0.65\ngini = 0.082\nsamples = 540\nvalue = [0, 23, 517, 0, 0, 0, 0, 0, 0, 0]"] ;
10 -> 12 ;
13 [label="gini = 0.0\nsamples = 300\nvalue = [0, 0, 300, 0, 0, 0, 0, 0, 0, 0]"] ;
12 -> 13 ;
14 [label="demand <= -0.89\ngini = 0.173\nsamples = 240\nvalue = [0, 23, 217, 0, 0, 0, 0, 0, 0, 0]"] ;
12 -> 14 ;
15 [label="gini = 0.28\nsamples = 119\nvalue = [0, 20, 99, 0, 0, 0, 0, 0, 0, 0]"] ;
14 -> 15 ;
16 [label="gini = 0.048\nsamples = 121\nvalue = [0, 3, 118, 0, 0, 0, 0, 0, 0, 0]"] ;
14 -> 16 ;
17 [label="demand <= -0.61\ngini = 0.655\nsamples = 1638\nvalue = [0, 4, 53, 760, 576, 51, 36, 30, 36, 92]"] ;
3 -> 17 ;
18 [label="inventory <= 0.56\ngini = 0.439\nsamples = 928\nvalue = [0, 4, 53, 688, 59, 22, 18, 12, 26, 46]"] ;
17 -> 18 ;
19 [label="gini = 0.803\nsamples = 148\nvalue = [0, 0, 0, 0, 24, 22, 18, 12, 26, 46]"] ;
18 -> 19 ;
20 [label="inventory <= 0.67\ngini = 0.215\nsamples = 780\nvalue = [0, 4, 53, 688, 35, 0, 0, 0, 0, 0]"] ;
18 -> 20 ;
21 [label="demand <= -0.65\ngini = 0.141\nsamples = 668\nvalue = [0, 0, 15, 618, 35, 0, 0, 0, 0, 0]"] ;
20 -> 21 ;
22 [label="inventory <= 0.65\ngini = 0.069\nsamples = 506\nvalue = [0, 0, 15, 488, 3, 0, 0, 0, 0, 0]"] ;
21 -> 22 ;
23 [label="demand <= -0.69\ngini = 0.015\nsamples = 399\nvalue = [0, 0, 0, 396, 3, 0, 0, 0, 0, 0]"] ;
22 -> 23 ;
24 [label="gini = 0.0\nsamples = 279\nvalue = [0, 0, 0, 279, 0, 0, 0, 0, 0, 0]"] ;
23 -> 24 ;
25 [label="gini = 0.049\nsamples = 120\nvalue = [0, 0, 0, 117, 3, 0, 0, 0, 0, 0]"] ;
23 -> 25 ;
26 [label="gini = 0.241\nsamples = 107\nvalue = [0, 0, 15, 92, 0, 0, 0, 0, 0, 0]"] ;
22 -> 26 ;
27 [label="gini = 0.317\nsamples = 162\nvalue = [0, 0, 0, 130, 32, 0, 0, 0, 0, 0]"] ;
21 -> 27 ;
28 [label="gini = 0.493\nsamples = 112\nvalue = [0, 4, 38, 70, 0, 0, 0, 0, 0, 0]"] ;
20 -> 28 ;
29 [label="inventory <= 0.51\ngini = 0.452\nsamples = 710\nvalue = [0, 0, 0, 72, 517, 29, 18, 18, 10, 46]"] ;
17 -> 29 ;
30 [label="gini = 0.747\nsamples = 120\nvalue = [0, 0, 0, 0, 0, 28, 18, 18, 10, 46]"] ;
29 -> 30 ;
31 [label="inventory <= 0.65\ngini = 0.217\nsamples = 590\nvalue = [0, 0, 0, 72, 517, 1, 0, 0, 0, 0]"] ;
29 -> 31 ;
32 [label="demand <= -0.51\ngini = 0.005\nsamples = 390\nvalue = [0, 0, 0, 0, 389, 1, 0, 0, 0, 0]"] ;
31 -> 32 ;
33 [label="gini = 0.0\nsamples = 276\nvalue = [0, 0, 0, 0, 276, 0, 0, 0, 0, 0]"] ;
32 -> 33 ;
34 [label="gini = 0.017\nsamples = 114\nvalue = [0, 0, 0, 0, 113, 1, 0, 0, 0, 0]"] ;
32 -> 34 ;
35 [label="gini = 0.461\nsamples = 200\nvalue = [0, 0, 0, 72, 128, 0, 0, 0, 0, 0]"] ;
31 -> 35 ;
36 [label="demand <= -0.65\ngini = 0.665\nsamples = 2667\nvalue = [787, 948, 931, 1, 0, 0, 0, 0, 0, 0]"] ;
2 -> 36 ;
37 [label="demand <= -0.85\ngini = 0.499\nsamples = 1740\nvalue = [787, 948, 5, 0, 0, 0, 0, 0, 0, 0]"] ;
36 -> 37 ;
38 [label="demand <= -0.89\ngini = 0.01\nsamples = 791\nvalue = [787, 4, 0, 0, 0, 0, 0, 0, 0, 0]"] ;
37 -> 38 ;
39 [label="gini = 0.0\nsamples = 579\nvalue = [579, 0, 0, 0, 0, 0, 0, 0, 0, 0]"] ;
38 -> 39 ;
40 [label="gini = 0.037\nsamples = 212\nvalue = [208, 4, 0, 0, 0, 0, 0, 0, 0, 0]"] ;
38 -> 40 ;
41 [label="demand <= -0.71\ngini = 0.01\nsamples = 949\nvalue = [0, 944, 5, 0, 0, 0, 0, 0, 0, 0]"] ;
37 -> 41 ;
42 [label="demand <= -0.75\ngini = 0.003\nsamples = 657\nvalue = [0, 656, 1, 0, 0, 0, 0, 0, 0, 0]"] ;
41 -> 42 ;
43 [label="gini = 0.0\nsamples = 473\nvalue = [0, 473, 0, 0, 0, 0, 0, 0, 0, 0]"] ;
42 -> 43 ;
44 [label="gini = 0.011\nsamples = 184\nvalue = [0, 183, 1, 0, 0, 0, 0, 0, 0, 0]"] ;
42 -> 44 ;
45 [label="demand <= -0.69\ngini = 0.027\nsamples = 292\nvalue = [0, 288, 4, 0, 0, 0, 0, 0, 0, 0]"] ;
41 -> 45 ;
46 [label="gini = 0.018\nsamples = 108\nvalue = [0, 107, 1, 0, 0, 0, 0, 0, 0, 0]"] ;
45 -> 46 ;
47 [label="gini = 0.032\nsamples = 184\nvalue = [0, 181, 3, 0, 0, 0, 0, 0, 0, 0]"] ;
45 -> 47 ;
48 [label="demand <= -0.51\ngini = 0.002\nsamples = 927\nvalue = [0, 0, 926, 1, 0, 0, 0, 0, 0, 0]"] ;
36 -> 48 ;
49 [label="gini = 0.0\nsamples = 737\nvalue = [0, 0, 737, 0, 0, 0, 0, 0, 0, 0]"] ;
48 -> 49 ;
50 [label="gini = 0.01\nsamples = 190\nvalue = [0, 0, 189, 1, 0, 0, 0, 0, 0, 0]"] ;
48 -> 50 ;
51 [label="demand <= -0.27\ngini = 0.816\nsamples = 7999\nvalue = [0, 0, 0, 1016, 1153, 2198, 1856, 828, 477, 471]"] ;
1 -> 51 ;
52 [label="inventory <= 0.89\ngini = 0.624\nsamples = 1996\nvalue = [0, 0, 0, 1016, 208, 646, 12, 26, 14, 74]"] ;
51 -> 52 ;
53 [label="demand <= -0.43\ngini = 0.51\nsamples = 973\nvalue = [0, 0, 0, 1, 200, 646, 12, 26, 14, 74]"] ;
52 -> 53 ;
54 [label="gini = 0.405\nsamples = 189\nvalue = [0, 0, 0, 1, 143, 25, 2, 6, 0, 12]"] ;
53 -> 54 ;
55 [label="inventory <= 0.41\ngini = 0.36\nsamples = 784\nvalue = [0, 0, 0, 0, 57, 621, 10, 20, 14, 62]"] ;
53 -> 55 ;
56 [label="gini = 0.584\nsamples = 104\nvalue = [0, 0, 0, 0, 0, 0, 8, 20, 14, 62]"] ;
55 -> 56 ;
57 [label="inventory <= 0.65\ngini = 0.159\nsamples = 680\nvalue = [0, 0, 0, 0, 57, 621, 2, 0, 0, 0]"] ;
55 -> 57 ;
58 [label="demand <= -0.31\ngini = 0.008\nsamples = 472\nvalue = [0, 0, 0, 0, 0, 470, 2, 0, 0, 0]"] ;
57 -> 58 ;
59 [label="gini = 0.0\nsamples = 350\nvalue = [0, 0, 0, 0, 0, 350, 0, 0, 0, 0]"] ;
58 -> 59 ;
60 [label="gini = 0.032\nsamples = 122\nvalue = [0, 0, 0, 0, 0, 120, 2, 0, 0, 0]"] ;
58 -> 60 ;
61 [label="gini = 0.398\nsamples = 208\nvalue = [0, 0, 0, 0, 57, 151, 0, 0, 0, 0]"] ;
57 -> 61 ;
62 [label="demand <= -0.33\ngini = 0.016\nsamples = 1023\nvalue = [0, 0, 0, 1015, 8, 0, 0, 0, 0, 0]"] ;
52 -> 62 ;
63 [label="demand <= -0.37\ngini = 0.003\nsamples = 735\nvalue = [0, 0, 0, 734, 1, 0, 0, 0, 0, 0]"] ;
62 -> 63 ;
64 [label="gini = 0.0\nsamples = 528\nvalue = [0, 0, 0, 528, 0, 0, 0, 0, 0, 0]"] ;
63 -> 64 ;
65 [label="gini = 0.01\nsamples = 207\nvalue = [0, 0, 0, 206, 1, 0, 0, 0, 0, 0]"] ;
63 -> 65 ;
66 [label="demand <= -0.31\ngini = 0.047\nsamples = 288\nvalue = [0, 0, 0, 281, 7, 0, 0, 0, 0, 0]"] ;
62 -> 66 ;
67 [label="gini = 0.075\nsamples = 102\nvalue = [0, 0, 0, 98, 4, 0, 0, 0, 0, 0]"] ;
66 -> 67 ;
68 [label="gini = 0.032\nsamples = 186\nvalue = [0, 0, 0, 183, 3, 0, 0, 0, 0, 0]"] ;
66 -> 68 ;
69 [label="demand <= -0.09\ngini = 0.786\nsamples = 6003\nvalue = [0, 0, 0, 0, 945, 1552, 1844, 802, 463, 397]"] ;
51 -> 69 ;
70 [label="inventory <= 0.86\ngini = 0.637\nsamples = 1800\nvalue = [0, 0, 0, 0, 945, 344, 399, 20, 20, 72]"] ;
69 -> 70 ;
71 [label="demand <= -0.19\ngini = 0.612\nsamples = 848\nvalue = [0, 0, 0, 0, 0, 337, 399, 20, 20, 72]"] ;
70 -> 71 ;
72 [label="inventory <= 0.61\ngini = 0.427\nsamples = 403\nvalue = [0, 0, 0, 0, 0, 299, 42, 10, 10, 42]"] ;
71 -> 72 ;
73 [label="gini = 0.715\nsamples = 100\nvalue = [0, 0, 0, 0, 0, 10, 28, 10, 10, 42]"] ;
72 -> 73 ;
74 [label="demand <= -0.23\ngini = 0.088\nsamples = 303\nvalue = [0, 0, 0, 0, 0, 289, 14, 0, 0, 0]"] ;
72 -> 74 ;
75 [label="gini = 0.0\nsamples = 146\nvalue = [0, 0, 0, 0, 0, 146, 0, 0, 0, 0]"] ;
74 -> 75 ;
76 [label="gini = 0.162\nsamples = 157\nvalue = [0, 0, 0, 0, 0, 143, 14, 0, 0, 0]"] ;
74 -> 76 ;
77 [label="inventory <= 0.65\ngini = 0.344\nsamples = 445\nvalue = [0, 0, 0, 0, 0, 38, 357, 10, 10, 30]"] ;
71 -> 77 ;
78 [label="inventory <= 0.63\ngini = 0.28\nsamples = 317\nvalue = [0, 0, 0, 0, 0, 0, 267, 10, 10, 30]"] ;
77 -> 78 ;
79 [label="gini = 0.502\nsamples = 152\nvalue = [0, 0, 0, 0, 0, 0, 102, 10, 10, 30]"] ;
78 -> 79 ;
80 [label="gini = 0.0\nsamples = 165\nvalue = [0, 0, 0, 0, 0, 0, 165, 0, 0, 0]"] ;
78 -> 80 ;
81 [label="gini = 0.417\nsamples = 128\nvalue = [0, 0, 0, 0, 0, 38, 90, 0, 0, 0]"] ;
77 -> 81 ;
82 [label="demand <= -0.15\ngini = 0.015\nsamples = 952\nvalue = [0, 0, 0, 0, 945, 7, 0, 0, 0, 0]"] ;
70 -> 82 ;
83 [label="demand <= -0.21\ngini = 0.006\nsamples = 656\nvalue = [0, 0, 0, 0, 654, 2, 0, 0, 0, 0]"] ;
82 -> 83 ;
84 [label="demand <= -0.25\ngini = 0.012\nsamples = 338\nvalue = [0, 0, 0, 0, 336, 2, 0, 0, 0, 0]"] ;
83 -> 84 ;
85 [label="gini = 0.0\nsamples = 116\nvalue = [0, 0, 0, 0, 116, 0, 0, 0, 0, 0]"] ;
84 -> 85 ;
86 [label="gini = 0.018\nsamples = 222\nvalue = [0, 0, 0, 0, 220, 2, 0, 0, 0, 0]"] ;
84 -> 86 ;
87 [label="gini = 0.0\nsamples = 318\nvalue = [0, 0, 0, 0, 318, 0, 0, 0, 0, 0]"] ;
83 -> 87 ;
88 [label="demand <= -0.13\ngini = 0.033\nsamples = 296\nvalue = [0, 0, 0, 0, 291, 5, 0, 0, 0, 0]"] ;
82 -> 88 ;
89 [label="gini = 0.085\nsamples = 112\nvalue = [0, 0, 0, 0, 107, 5, 0, 0, 0, 0]"] ;
88 -> 89 ;
90 [label="gini = 0.0\nsamples = 184\nvalue = [0, 0, 0, 0, 184, 0, 0, 0, 0, 0]"] ;
88 -> 90 ;
91 [label="inventory <= 0.91\ngini = 0.747\nsamples = 4203\nvalue = [0, 0, 0, 0, 0, 1208, 1445, 782, 443, 325]"] ;
69 -> 91 ;
92 [label="demand <= 0.03\ngini = 0.725\nsamples = 2069\nvalue = [0, 0, 0, 0, 0, 3, 521, 777, 443, 325]"] ;
91 -> 92 ;
93 [label="inventory <= 0.61\ngini = 0.332\nsamples = 583\nvalue = [0, 0, 0, 0, 0, 3, 469, 33, 0, 78]"] ;
92 -> 93 ;
94 [label="gini = 0.476\nsamples = 113\nvalue = [0, 0, 0, 0, 0, 0, 17, 18, 0, 78]"] ;
93 -> 94 ;
95 [label="demand <= -0.01\ngini = 0.074\nsamples = 470\nvalue = [0, 0, 0, 0, 0, 3, 452, 15, 0, 0]"] ;
93 -> 95 ;
96 [label="inventory <= 0.65\ngini = 0.019\nsamples = 320\nvalue = [0, 0, 0, 0, 0, 3, 317, 0, 0, 0]"] ;
95 -> 96 ;
97 [label="gini = 0.0\nsamples = 211\nvalue = [0, 0, 0, 0, 0, 0, 211, 0, 0, 0]"] ;
96 -> 97 ;
98 [label="gini = 0.054\nsamples = 109\nvalue = [0, 0, 0, 0, 0, 3, 106, 0, 0, 0]"] ;
96 -> 98 ;
99 [label="gini = 0.18\nsamples = 150\nvalue = [0, 0, 0, 0, 0, 0, 135, 15, 0, 0]"] ;
95 -> 99 ;
100 [label="demand <= 0.21\ngini = 0.632\nsamples = 1486\nvalue = [0, 0, 0, 0, 0, 0, 52, 744, 443, 247]"] ;
92 -> 100 ;
101 [label="inventory <= 0.51\ngini = 0.41\nsamples = 899\nvalue = [0, 0, 0, 0, 0, 0, 52, 674, 39, 134]"] ;
100 -> 101 ;
102 [label="gini = 0.029\nsamples = 136\nvalue = [0, 0, 0, 0, 0, 0, 0, 0, 2, 134]"] ;
101 -> 102 ;
103 [label="inventory <= 0.67\ngini = 0.213\nsamples = 763\nvalue = [0, 0, 0, 0, 0, 0, 52, 674, 37, 0]"] ;
101 -> 103 ;
104 [label="inventory <= 0.63\ngini = 0.135\nsamples = 657\nvalue = [0, 0, 0, 0, 0, 0, 10, 610, 37, 0]"] ;
103 -> 104 ;
105 [label="gini = 0.294\nsamples = 207\nvalue = [0, 0, 0, 0, 0, 0, 0, 170, 37, 0]"] ;
104 -> 105 ;
106 [label="demand <= 0.09\ngini = 0.043\nsamples = 450\nvalue = [0, 0, 0, 0, 0, 0, 10, 440, 0, 0]"] ;
104 -> 106 ;
107 [label="gini = 0.134\nsamples = 139\nvalue = [0, 0, 0, 0, 0, 0, 10, 129, 0, 0]"] ;
106 -> 107 ;
108 [label="gini = 0.0\nsamples = 311\nvalue = [0, 0, 0, 0, 0, 0, 0, 311, 0, 0]"] ;
106 -> 108 ;
109 [label="gini = 0.478\nsamples = 106\nvalue = [0, 0, 0, 0, 0, 0, 42, 64, 0, 0]"] ;
103 -> 109 ;
110 [label="inventory <= 0.59\ngini = 0.475\nsamples = 587\nvalue = [0, 0, 0, 0, 0, 0, 0, 70, 404, 113]"] ;
100 -> 110 ;
111 [label="gini = 0.018\nsamples = 110\nvalue = [0, 0, 0, 0, 0, 0, 0, 0, 1, 109]"] ;
110 -> 111 ;
112 [label="inventory <= 0.65\ngini = 0.265\nsamples = 477\nvalue = [0, 0, 0, 0, 0, 0, 0, 70, 403, 4]"] ;
110 -> 112 ;
113 [label="inventory <= 0.63\ngini = 0.024\nsamples = 328\nvalue = [0, 0, 0, 0, 0, 0, 0, 0, 324, 4]"] ;
112 -> 113 ;
114 [label="gini = 0.075\nsamples = 102\nvalue = [0, 0, 0, 0, 0, 0, 0, 0, 98, 4]"] ;
113 -> 114 ;
115 [label="gini = 0.0\nsamples = 226\nvalue = [0, 0, 0, 0, 0, 0, 0, 0, 226, 0]"] ;
113 -> 115 ;
116 [label="gini = 0.498\nsamples = 149\nvalue = [0, 0, 0, 0, 0, 0, 0, 70, 79, 0]"] ;
112 -> 116 ;
117 [label="demand <= 0.15\ngini = 0.494\nsamples = 2134\nvalue = [0, 0, 0, 0, 0, 1205, 924, 5, 0, 0]"] ;
91 -> 117 ;
118 [label="demand <= 0.07\ngini = 0.007\nsamples = 1209\nvalue = [0, 0, 0, 0, 0, 1205, 4, 0, 0, 0]"] ;
117 -> 118 ;
119 [label="gini = 0.0\nsamples = 777\nvalue = [0, 0, 0, 0, 0, 777, 0, 0, 0, 0]"] ;
118 -> 119 ;
120 [label="demand <= 0.09\ngini = 0.018\nsamples = 432\nvalue = [0, 0, 0, 0, 0, 428, 4, 0, 0, 0]"] ;
118 -> 120 ;
121 [label="gini = 0.033\nsamples = 121\nvalue = [0, 0, 0, 0, 0, 119, 2, 0, 0, 0]"] ;
120 -> 121 ;
122 [label="demand <= 0.13\ngini = 0.013\nsamples = 311\nvalue = [0, 0, 0, 0, 0, 309, 2, 0, 0, 0]"] ;
120 -> 122 ;
123 [label="gini = 0.01\nsamples = 201\nvalue = [0, 0, 0, 0, 0, 200, 1, 0, 0, 0]"] ;
122 -> 123 ;
124 [label="gini = 0.018\nsamples = 110\nvalue = [0, 0, 0, 0, 0, 109, 1, 0, 0, 0]"] ;
122 -> 124 ;
125 [label="demand <= 0.25\ngini = 0.011\nsamples = 925\nvalue = [0, 0, 0, 0, 0, 0, 920, 5, 0, 0]"] ;
117 -> 125 ;
126 [label="gini = 0.0\nsamples = 511\nvalue = [0, 0, 0, 0, 0, 0, 511, 0, 0, 0]"] ;
125 -> 126 ;
127 [label="demand <= 0.27\ngini = 0.024\nsamples = 414\nvalue = [0, 0, 0, 0, 0, 0, 409, 5, 0, 0]"] ;
125 -> 127 ;
128 [label="gini = 0.018\nsamples = 109\nvalue = [0, 0, 0, 0, 0, 0, 108, 1, 0, 0]"] ;
127 -> 128 ;
129 [label="demand <= 0.29\ngini = 0.026\nsamples = 305\nvalue = [0, 0, 0, 0, 0, 0, 301, 4, 0, 0]"] ;
127 -> 129 ;
130 [label="gini = 0.033\nsamples = 119\nvalue = [0, 0, 0, 0, 0, 0, 117, 2, 0, 0]"] ;
129 -> 130 ;
131 [label="gini = 0.021\nsamples = 186\nvalue = [0, 0, 0, 0, 0, 0, 184, 2, 0, 0]"] ;
129 -> 131 ;
132 [label="inventory <= 0.93\ngini = 0.537\nsamples = 6587\nvalue = [0, 0, 0, 0, 0, 0, 0, 1139, 1322, 4126]"] ;
0 -> 132 [labeldistance=2.5, labelangle=-45, headlabel="False"] ;
133 [label="demand <= 0.39\ngini = 0.158\nsamples = 3204\nvalue = [0, 0, 0, 0, 0, 0, 0, 2, 274, 2928]"] ;
132 -> 133 ;
134 [label="inventory <= 0.63\ngini = 0.473\nsamples = 307\nvalue = [0, 0, 0, 0, 0, 0, 0, 1, 191, 115]"] ;
133 -> 134 ;
135 [label="gini = 0.159\nsamples = 126\nvalue = [0, 0, 0, 0, 0, 0, 0, 0, 11, 115]"] ;
134 -> 135 ;
136 [label="gini = 0.011\nsamples = 181\nvalue = [0, 0, 0, 0, 0, 0, 0, 1, 180, 0]"] ;
134 -> 136 ;
137 [label="demand <= 0.43\ngini = 0.056\nsamples = 2897\nvalue = [0, 0, 0, 0, 0, 0, 0, 1, 83, 2813]"] ;
133 -> 137 ;
138 [label="gini = 0.406\nsamples = 168\nvalue = [0, 0, 0, 0, 0, 0, 0, 1, 46, 121]"] ;
137 -> 138 ;
139 [label="inventory <= 0.69\ngini = 0.027\nsamples = 2729\nvalue = [0, 0, 0, 0, 0, 0, 0, 0, 37, 2692]"] ;
137 -> 139 ;
140 [label="inventory <= 0.67\ngini = 0.006\nsamples = 2527\nvalue = [0, 0, 0, 0, 0, 0, 0, 0, 7, 2520]"] ;
139 -> 140 ;
141 [label="gini = 0.0\nsamples = 2402\nvalue = [0, 0, 0, 0, 0, 0, 0, 0, 0, 2402]"] ;
140 -> 141 ;
142 [label="gini = 0.106\nsamples = 125\nvalue = [0, 0, 0, 0, 0, 0, 0, 0, 7, 118]"] ;
140 -> 142 ;
143 [label="demand <= 0.71\ngini = 0.253\nsamples = 202\nvalue = [0, 0, 0, 0, 0, 0, 0, 0, 30, 172]"] ;
139 -> 143 ;
144 [label="gini = 0.415\nsamples = 102\nvalue = [0, 0, 0, 0, 0, 0, 0, 0, 30, 72]"] ;
143 -> 144 ;
145 [label="gini = 0.0\nsamples = 100\nvalue = [0, 0, 0, 0, 0, 0, 0, 0, 0, 100]"] ;
143 -> 145 ;
146 [label="demand <= 0.75\ngini = 0.666\nsamples = 3383\nvalue = [0, 0, 0, 0, 0, 0, 0, 1137, 1048, 1198]"] ;
132 -> 146 ;
147 [label="demand <= 0.55\ngini = 0.504\nsamples = 2196\nvalue = [0, 0, 0, 0, 0, 0, 0, 1137, 1048, 11]"] ;
146 -> 147 ;
148 [label="demand <= 0.51\ngini = 0.005\nsamples = 1140\nvalue = [0, 0, 0, 0, 0, 0, 0, 1137, 3, 0]"] ;
147 -> 148 ;
149 [label="gini = 0.0\nsamples = 927\nvalue = [0, 0, 0, 0, 0, 0, 0, 927, 0, 0]"] ;
148 -> 149 ;
150 [label="demand <= 0.53\ngini = 0.028\nsamples = 213\nvalue = [0, 0, 0, 0, 0, 0, 0, 210, 3, 0]"] ;
148 -> 150 ;
151 [label="gini = 0.019\nsamples = 106\nvalue = [0, 0, 0, 0, 0, 0, 0, 105, 1, 0]"] ;
150 -> 151 ;
152 [label="gini = 0.037\nsamples = 107\nvalue = [0, 0, 0, 0, 0, 0, 0, 105, 2, 0]"] ;
150 -> 152 ;
153 [label="demand <= 0.69\ngini = 0.021\nsamples = 1056\nvalue = [0, 0, 0, 0, 0, 0, 0, 0, 1045, 11]"] ;
147 -> 153 ;
154 [label="gini = 0.0\nsamples = 714\nvalue = [0, 0, 0, 0, 0, 0, 0, 0, 714, 0]"] ;
153 -> 154 ;
155 [label="demand <= 0.71\ngini = 0.062\nsamples = 342\nvalue = [0, 0, 0, 0, 0, 0, 0, 0, 331, 11]"] ;
153 -> 155 ;
156 [label="gini = 0.036\nsamples = 109\nvalue = [0, 0, 0, 0, 0, 0, 0, 0, 107, 2]"] ;
155 -> 156 ;
157 [label="demand <= 0.73\ngini = 0.074\nsamples = 233\nvalue = [0, 0, 0, 0, 0, 0, 0, 0, 224, 9]"] ;
155 -> 157 ;
158 [label="gini = 0.086\nsamples = 111\nvalue = [0, 0, 0, 0, 0, 0, 0, 0, 106, 5]"] ;
157 -> 158 ;
159 [label="gini = 0.063\nsamples = 122\nvalue = [0, 0, 0, 0, 0, 0, 0, 0, 118, 4]"] ;
157 -> 159 ;
160 [label="gini = 0.0\nsamples = 1187\nvalue = [0, 0, 0, 0, 0, 0, 0, 0, 0, 1187]"] ;
146 -> 160 ;
}
